{
  "input_nodes": 5,
  "hidden_nodes": 10,
  "output_nodes": 2,
  "weights_ih": {
    "rows": 10,
    "cols": 5,
    "matrix": [
      [
        -0.32535474930069797,
        1.5127275681195407,
        -0.9361870239038217,
        0.3994892928484826,
        1.1129128220648705
      ],
      [
        -0.41914690478115363,
        -0.14089411693734039,
        -0.40503306349129414,
        -0.4754333914101829,
        0.20033855666557035
      ],
      [
        1.3299499068399874,
        -0.8858779614671312,
        0.8115121912264297,
        1.1992395273940535,
        0.7058326721859824
      ],
      [
        -1.8703893613697242,
        1.0292466778309135,
        0.5339087738221906,
        -1.4228807856371473,
        0.07018490665865568
      ],
      [
        2.325812939738744,
        -0.30189405613427406,
        -0.20697280379554045,
        0.27645590457589375,
        -0.8053541441486717
      ],
      [
        -0.06940213729263492,
        -0.0786734461604749,
        0.5501531772009245,
        -1.507605263611534,
        0.6952393148834716
      ],
      [
        -0.9626119481576487,
        0.6747960181167388,
        -1.4926565174363629,
        1.0594994986412285,
        -0.7001536849674633
      ],
      [
        1.5094570855370544,
        -1.3332709906319826,
        -1.1763838061727152,
        0.27247598193288863,
        -0.7863285596949754
      ],
      [
        -1.2493934401986828,
        1.0942844256073825,
        0.5642908588704522,
        0.18455226153270549,
        -0.18587982146346138
      ],
      [
        0.45924057108503813,
        -0.044721704172159565,
        -0.06625793605596407,
        -1.0143004776578775,
        2.303711527789193
      ]
    ]
  },
  "weights_ho": {
    "rows": 2,
    "cols": 10,
    "matrix": [
      [
        -0.4124338024570356,
        -0.7701751674407679,
        -0.17939344007809427,
        -0.4403814998539836,
        0.6166424460423942,
        0.5422689259155402,
        -1.0745815750847947,
        0.17429077023734046,
        -0.33630959896983964,
        0.6848291140468337
      ],
      [
        0.40812771858953445,
        0.37023416926759,
        0.07575437174555433,
        1.1506039316923649,
        0.3793910440694932,
        -0.1037215418536154,
        -0.7824427267534663,
        -0.18743307413786875,
        0.004881654915819898,
        -0.29016140126369816
      ]
    ]
  },
  "bias_h": {
    "rows": 10,
    "cols": 1,
    "matrix": [
      [
        -0.3406645239659939
      ],
      [
        0.2503701099972484
      ],
      [
        -0.5758083108205714
      ],
      [
        0.7751890258403968
      ],
      [
        -0.20006093374639286
      ],
      [
        -1.379922827541552
      ],
      [
        -0.02143718541442051
      ],
      [
        -1.194327894169573
      ],
      [
        0.9967996402496233
      ],
      [
        -0.9953150831393999
      ]
    ]
  },
  "bias_o": {
    "rows": 2,
    "cols": 1,
    "matrix": [
      [
        0.47652112006015307
      ],
      [
        -1.2127677409929467
      ]
    ]
  },
  "lr": 0.1,
  "aFunc": {}
}
